%YAML:1.0
my_svm: !!opencv-ml-svm
   svm_type: C_SVC
   kernel: { type:RBF, gamma:5.0625000000000009e-001 }
   C: 3.1250000000000000e+002
   term_criteria: { epsilon:2.2204460492503131e-016, iterations:100 }
   var_all: 11
   var_count: 11
   class_count: 7
   class_labels: !!opencv-matrix
      rows: 1
      cols: 7
      dt: i
      data: [ -3, -2, -1, 0, 1, 2, 3 ]
   sv_total: 127
   support_vectors:
      - [ 1.21118009e-001, 8.61801207e-002, 1.16459623e-001,
          9.31677036e-003, 1.07142858e-001, 4.05279487e-001,
          1.65372670e-001, 2.56211162e-001, 4.51863348e-001,
          7.73291886e-001, 8.43167663e-001 ]
      - [ 8.94886330e-002, 8.73579532e-002, 9.41761360e-002,
          2.34375000e-002, 1.34232953e-001, 4.38920438e-001,
          1.29971594e-001, 2.68465906e-001, 5.11363626e-001,
          7.15909064e-001, 8.43750000e-001 ]
      - [ 1.09422497e-001, 2.27963533e-002, 6.47416487e-002,
          2.73556244e-002, 1.57294840e-001, 4.46808517e-001,
          2.05167174e-001, 2.87234038e-001, 4.33130711e-001,
          7.75076032e-001, 9.43769038e-001 ]
      - [ 1.31728053e-001, 8.07365477e-002, 1.22804545e-001,
          3.61189805e-002, 1.29603401e-001, 4.24929202e-001,
          1.42351285e-001, 2.46458933e-001, 3.95184159e-001,
          6.79886699e-001, 8.37110519e-001 ]
      - [ 1.54615387e-001, 9.46153849e-002, 1.33846149e-001,
          2.07692310e-002, 1.40769228e-001, 4.84615386e-001,
          1.31538466e-001, 2.67692298e-001, 4.89230752e-001,
          8.72307658e-001, 8.81538451e-001 ]
      - [ 1.02026053e-001, 5.86107112e-002, 8.94356072e-002,
          1.08538354e-002, 1.32416785e-001, 4.25470352e-001,
          1.34587556e-001, 2.25759774e-001, 4.51519549e-001,
          5.64399421e-001, 8.20549965e-001 ]
      - [ 1.23921081e-001, 3.69913690e-002, 9.61775556e-002,
          3.32922302e-002, 1.31319359e-001, 4.36498135e-001,
          1.90505534e-001, 2.21948206e-001, 4.95684326e-001,
          4.88286048e-001, 8.43403161e-001 ]
      - [ 1.70568570e-001, 1.68060198e-001, 1.77090317e-001,
          4.76588644e-002, 1.73076928e-001, 3.41137141e-001,
          2.03177258e-001, 2.45819405e-001, 4.26421404e-001,
          5.51839471e-001, 8.77926469e-001 ]
      - [ 1.48514852e-001, 3.79537940e-002, 9.57095698e-002,
          3.79537940e-002, 1.23762377e-001, 4.22442257e-001,
          1.41914189e-001, 2.40924090e-001, 3.79537940e-001,
          6.96369648e-001, 8.28382850e-001 ]
      - [ 1.53965786e-001, 1.32970452e-001, 1.62363932e-001,
          3.26594114e-002, 1.37636080e-001, 4.15241063e-001,
          1.39968902e-001, 2.70606548e-001, 4.89891142e-001,
          8.39813411e-001, 8.30482125e-001 ]
      - [ 6.77290857e-002, 5.37848622e-002, 1.10756971e-001,
          2.98804790e-002, 1.57370523e-001, 4.34262961e-001,
          1.63346618e-001, 2.47011960e-001, 4.18326706e-001,
          8.04780900e-001, 8.20717156e-001 ]
      - [ 7.80669153e-002, 7.52788112e-002, 1.09293684e-001,
          2.50929371e-002, 6.69144988e-002, 3.06691468e-001,
          1.67286247e-001, 2.89962828e-001, 4.79553908e-001,
          8.97769570e-001, 8.25278819e-001 ]
      - [ 1.97368428e-001, 1.26315787e-001, 1.83684215e-001,
          1.84210520e-002, 1.44736841e-001, 2.63157904e-001,
          1.84210524e-001, 2.68421054e-001, 4.89473671e-001,
          6.78947389e-001, 8.15789461e-001 ]
      - [ 1.51685387e-001, 8.42696577e-002, 1.29052967e-001,
          3.61155681e-002, 1.22792937e-001, 2.88924545e-001,
          1.51685387e-001, 2.45585874e-001, 4.33386832e-001,
          7.70465493e-001, 8.18619549e-001 ]
      - [ 1.32158592e-001, 5.28634377e-002, 9.95594710e-002,
          8.81057233e-003, 6.60792962e-002, 3.83259922e-001,
          1.14537448e-001, 2.42290750e-001, 4.84581500e-001,
          7.66519845e-001, 8.10572684e-001 ]
      - [ 1.61710039e-001, 8.36431235e-002, 1.46840155e-001,
          1.85873602e-002, 1.31970257e-001, 5.01858711e-001,
          2.26765797e-001, 3.45724910e-001, 4.79553908e-001,
          1.08921933e+000, 9.73977685e-001 ]
      - [ 7.32283443e-002, 6.14173226e-002, 9.59055051e-002,
          1.88976377e-002, 1.34645671e-001, 5.05511820e-001,
          1.27559051e-001, 1.98425189e-001, 4.01574790e-001,
          4.48818892e-001, 8.97637784e-001 ]
      - [ 1.13868617e-001, 1.16058394e-001, 1.52846724e-001,
          2.18978114e-002, 1.31386861e-001, 4.90510970e-001,
          1.33576646e-001, 2.71532863e-001, 3.50364983e-001,
          7.92700768e-001, 8.40875924e-001 ]
      - [ 6.72823191e-002, 5.54089695e-002, 1.10817939e-001,
          2.77044848e-002, 1.54353559e-001, 4.23482835e-001,
          1.70184687e-001, 3.00791562e-001, 3.91820580e-001,
          9.97361481e-001, 9.02374625e-001 ]
      - [ 9.13242027e-002, 3.42465751e-002, 1.24657534e-001,
          2.28310493e-003, 1.62100449e-001, 5.38812757e-001,
          2.12328762e-001, 3.51598173e-001, 3.51598173e-001,
          9.86301363e-001, 1.03196347e+000 ]
      - [ 1.10038608e-001, 1.06177606e-001, 1.37451738e-001,
          4.44015451e-002, 1.44787639e-001, 3.35907340e-001,
          1.94980696e-001, 2.89575279e-001, 3.74517381e-001,
          7.60617733e-001, 8.61003876e-001 ]
      - [ 1.40559450e-001, 5.87412603e-002, 1.21678323e-001,
          1.67832170e-002, 1.04895107e-001, 4.23776239e-001,
          1.67832166e-001, 2.55944073e-001, 3.81818175e-001,
          6.79720283e-001, 8.30769241e-001 ]
      - [ 7.60489479e-002, 6.55594394e-002, 7.97202811e-002,
          1.04895104e-002, 1.15384616e-001, 4.61538464e-001,
          1.38986006e-001, 1.99300691e-001, 4.19580400e-001,
          5.97902060e-001, 8.81118834e-001 ]
      - [ 1.64127424e-001, 1.03878111e-001, 1.46260381e-001,
          2.70083100e-002, 1.12188362e-001, 3.90581697e-001,
          1.91135734e-001, 1.99445978e-001, 4.73684192e-001,
          4.77839321e-001, 7.85318553e-001 ]
      - [ 1.11872144e-001, 1.07305937e-001, 1.18721463e-001,
          5.25114164e-002, 1.34703189e-001, 4.24657524e-001,
          1.57534242e-001, 1.91780820e-001, 3.92694056e-001,
          3.69863003e-001, 7.62557089e-001 ]
      - [ 1.56826571e-001, 5.90405911e-002, 1.28413290e-001,
          5.53505542e-003, 1.25461251e-001, 3.94833952e-001,
          1.60516605e-001, 1.80811808e-001, 4.39114392e-001,
          5.12915134e-001, 7.60147631e-001 ]
      - [ 1.46393210e-001, 9.97171104e-002, 1.39603958e-001,
          2.12164074e-002, 1.23055160e-001, 4.75247502e-001,
          1.69731259e-001, 2.07920790e-001, 3.77652049e-001,
          3.43705803e-001, 8.61386120e-001 ]
      - [ 1.12499997e-001, 5.51470593e-002, 9.61764678e-002,
          3.08823530e-002, 8.82352889e-002, 4.76470590e-001,
          1.69852942e-001, 2.07352936e-001, 3.35294098e-001,
          4.19117630e-001, 9.08823490e-001 ]
      - [ 1.66965887e-001, 1.72351882e-001, 1.88509867e-001,
          4.03949730e-002, 1.10412925e-001, 4.09335703e-001,
          1.80430874e-001, 2.04667851e-001, 3.71633738e-001,
          4.14721698e-001, 8.50987434e-001 ]
      - [ 1.42207801e-001, 9.15584415e-002, 1.37532473e-001,
          3.50649357e-002, 1.38311699e-001, 3.58441561e-001,
          1.83116883e-001, 2.29870141e-001, 3.85714293e-001,
          4.44155872e-001, 7.75324702e-001 ]
      - [ 1.48837209e-001, 1.34883717e-001, 1.54418588e-001,
          3.25581394e-002, 1.30232558e-001, 3.72093022e-001,
          1.81395352e-001, 1.86046511e-001, 4.18604642e-001,
          3.44186038e-001, 7.62790680e-001 ]
      - [ 6.93374425e-002, 4.62249629e-002, 6.65639415e-002,
          4.16024663e-002, 1.34052396e-001, 6.10169530e-001,
          1.52542382e-001, 2.21879825e-001, 3.14329743e-001,
          4.71494615e-001, 9.19876754e-001 ]
      - [ 1.11607142e-001, 1.33928573e-002, 8.39285702e-002,
          6.69642864e-003, 1.38392851e-001, 4.82142866e-001,
          1.45089284e-001, 2.14285716e-001, 3.16964298e-001,
          5.53571403e-001, 8.57142866e-001 ]
      - [ 1.13251157e-001, 5.77812046e-002, 1.01232678e-001,
          5.31587079e-002, 6.47149459e-002, 4.29892153e-001,
          1.71032354e-001, 2.17257321e-001, 4.48382139e-001,
          6.97996914e-001, 8.41294348e-001 ]
      - [ 1.01199403e-001, 5.84707670e-002, 9.31034535e-002,
          4.49775113e-003, 1.03448279e-001, 3.46326858e-001,
          1.66416794e-001, 1.57421291e-001, 4.31784123e-001,
          4.31784123e-001, 8.00599694e-001 ]
      - [ 1.48122385e-001, 1.52294844e-001, 1.57301813e-001,
          3.54659259e-002, 1.35605007e-001, 4.58970785e-001,
          1.29346311e-001, 1.66898459e-001, 3.75521541e-001,
          3.67176622e-001, 7.63560474e-001 ]
      - [ 9.13520157e-002, 7.30816126e-002, 8.47746730e-002,
          9.13520157e-003, 9.86601710e-002, 3.80024374e-001,
          1.64433628e-001, 1.68087706e-001, 4.09257025e-001,
          4.16565180e-001, 7.34470189e-001 ]
      - [ 1.22041419e-001, 4.88165691e-002, 1.00295857e-001,
          2.21893489e-002, 1.50887579e-001, 4.21597630e-001,
          2.17455626e-001, 2.08579883e-001, 3.94970417e-001,
          2.66272187e-001, 7.76627243e-001 ]
      - [ 1.05182923e-001, 3.42987813e-002, 9.74085331e-002,
          1.60060972e-002, 1.53201222e-001, 4.48170722e-001,
          1.71493903e-001, 2.42378041e-001, 3.79573166e-001,
          5.03048778e-001, 9.00914609e-001 ]
      - [ 1.53237402e-001, 7.76978433e-002, 1.25179857e-001,
          3.66906449e-002, 1.51079129e-002, 3.75539571e-001,
          1.87769786e-001, 2.11510792e-001, 3.97122294e-001,
          5.17985582e-001, 8.41726601e-001 ]
      - [ 8.54572728e-002, 6.74662692e-003, 5.84707670e-002,
          1.12443781e-002, 1.05697155e-001, 5.30734658e-001,
          1.66416794e-001, 2.24887565e-001, 3.55322361e-001,
          4.63268369e-001, 8.72563720e-001 ]
      - [ 1.50674671e-001, 8.54572728e-002, 1.45727143e-001,
          4.49775122e-002, 1.52923539e-001, 4.04797614e-001,
          2.09145427e-001, 2.56371826e-001, 3.91304344e-001,
          5.98200917e-001, 8.54572713e-001 ]
      - [ 1.10769227e-001, 7.61538446e-002, 1.20923080e-001,
          1.84615385e-002, 1.17692307e-001, 4.98461515e-001,
          1.77692309e-001, 2.30769232e-001, 3.83076906e-001,
          4.70769227e-001, 9.13846135e-001 ]
      - [ 1.07717045e-001, 6.27009645e-002, 9.96784568e-002,
          2.89389063e-002, 8.19935724e-002, 4.50160772e-001,
          1.44694537e-001, 1.12540193e-001, 3.53697747e-001,
          1.63987145e-001, 7.81350493e-001 ]
      - [ 1.17739409e-001, 9.89011005e-002, 1.21978030e-001,
          1.17739402e-002, 1.27158552e-001, 4.70957637e-001,
          1.50706440e-001, 1.93092629e-001, 3.67346942e-001,
          4.52119321e-001, 8.80690753e-001 ]
      - [ 1.11282840e-001, 4.17310670e-002, 9.36630592e-002,
          4.86862436e-002, 1.41421944e-001, 4.86862421e-001,
          1.90108180e-001, 2.55023181e-001, 3.43122095e-001,
          4.96136010e-001, 9.27357018e-001 ]
      - [ 1.05697155e-001, 8.54572728e-002, 1.19640179e-001,
          1.12443781e-002, 9.67016518e-002, 4.81259376e-001,
          9.44527760e-002, 1.79910049e-001, 4.13793117e-001,
          4.04797614e-001, 8.05097461e-001 ]
      - [ 4.65260558e-002, 2.60545909e-002, 5.13647646e-002,
          5.76923117e-002, 1.15384623e-001, 4.65260565e-001,
          1.43300250e-001, 1.93548396e-001, 4.13151383e-001,
          4.01985139e-001, 8.89578223e-001 ]
      - [ 8.96159336e-002, 6.18776679e-002, 1.18207686e-001,
          1.49359889e-002, 1.19487911e-001, 4.35277402e-001,
          1.38691321e-001, 2.68847793e-001, 4.99288768e-001,
          7.55334318e-001, 8.66287351e-001 ]
      - [ 1.39232665e-001, 7.61138573e-002, 1.31806925e-001,
          3.52722742e-002, 1.07673265e-001, 4.93811876e-001,
          1.68935642e-001, 2.41336629e-001, 4.41831678e-001,
          6.05198026e-001, 9.20792043e-001 ]
      - [ 7.97872394e-002, 5.69908842e-002, 7.88753778e-002,
          6.83890581e-002, 9.11854133e-002, 4.55927074e-001,
          1.59574479e-001, 2.05167174e-001, 3.92097265e-001,
          5.01519740e-001, 8.89057755e-001 ]
      - [ 8.30618888e-002, 7.81758949e-002, 1.01302929e-001,
          2.60586310e-002, 7.65472278e-002, 4.65798050e-001,
          1.15635179e-001, 1.56351790e-001, 3.48534197e-001,
          3.06188911e-001, 7.85016298e-001 ]
      - [ 3.64741646e-002, 2.05167178e-002, 6.79331273e-002,
          2.05167178e-002, 1.41337395e-001, 4.69604880e-001,
          1.36778116e-001, 1.86930090e-001, 4.83282685e-001,
          4.24012154e-001, 8.84498477e-001 ]
      - [ 6.95970729e-002, 5.12820520e-002, 8.31501856e-002,
          7.32600736e-003, 1.20879121e-001, 3.91941398e-001,
          1.13553114e-001, 1.79487184e-001, 4.02930409e-001,
          4.54212457e-001, 7.47252762e-001 ]
      - [ 6.20689653e-002, 9.51724127e-002, 1.05517238e-001,
          1.03448275e-002, 1.63448274e-001, 4.84137923e-001,
          1.07586205e-001, 1.90344825e-001, 4.05517220e-001,
          4.30344820e-001, 7.94482768e-001 ]
      - [ 1.05603449e-001, 4.31034490e-002, 9.78448316e-002,
          4.31034481e-003, 1.37931034e-001, 4.31034476e-001,
          1.20689653e-001, 2.15517238e-001, 4.22413796e-001,
          4.91379321e-001, 8.44827592e-001 ]
      - [ 9.63503644e-002, 3.50364968e-002, 1.00729927e-001, 0.,
          1.37956202e-001, 4.99270082e-001, 1.18248180e-001,
          2.14598551e-001, 3.76642346e-001, 5.73722661e-001,
          8.40875924e-001 ]
      - [ 8.17378536e-002, 7.29013234e-002, 9.85272452e-002,
          1.76730491e-002, 1.52430043e-001, 4.15316641e-001,
          1.41384393e-001, 1.98821798e-001, 4.02061850e-001,
          5.25773227e-001, 8.83652449e-001 ]
      - [ 7.60869533e-002, 1.95652172e-002, 7.69565254e-002,
          1.73913036e-002, 1.13043480e-001, 4.34782594e-001,
          1.15217388e-001, 2.30434775e-001, 4.56521749e-001,
          4.56521749e-001, 8.34782600e-001 ]
      - [ 6.38801306e-002, 4.25867513e-002, 6.86119869e-002,
          2.12933756e-002, 1.46687701e-001, 4.02208209e-001,
          1.30126193e-001, 2.17665628e-001, 4.54258680e-001,
          4.82649863e-001, 8.75394344e-001 ]
      - [ 7.82463923e-002, 4.32852358e-002, 7.95782506e-002,
          4.32852358e-002, 1.08213089e-001, 4.26193118e-001,
          1.21531628e-001, 1.76470578e-001, 3.46281886e-001,
          4.59489435e-001, 7.85793543e-001 ]
      - [ 5.78703694e-002, 9.02777761e-002, 9.16666612e-002,
          1.15740737e-002, 1.27314821e-001, 5.04629612e-001,
          1.04166664e-001, 2.03703701e-001, 4.90740746e-001,
          4.58333343e-001, 8.98148119e-001 ]
      - [ 1.07644305e-001, 9.59438384e-002, 1.14664584e-001,
          7.02028070e-003, 1.09984398e-001, 4.07176286e-001,
          1.09984398e-001, 2.29329169e-001, 4.72698897e-001,
          6.45865798e-001, 8.84555340e-001 ]
      - [ 1.68282539e-001, 1.18421048e-001, 1.62880868e-001,
          2.70083100e-002, 9.76454243e-002, 3.82271469e-001,
          1.16343491e-001, 2.90858716e-001, 4.81994450e-001,
          1.02631581e+000, 7.85318553e-001 ]
      - [ 8.91768262e-002, 8.46036598e-002, 9.78658497e-002,
          4.57317056e-003, 1.21189021e-001, 4.29878026e-001,
          1.05182923e-001, 2.74390250e-001, 5.12195110e-001,
          7.63719499e-001, 8.27743888e-001 ]
      - [ 1.03139013e-001, 6.72645727e-003, 7.26457462e-002,
          1.56950671e-002, 1.03139013e-001, 5.15695095e-001,
          7.84753338e-002, 2.33183861e-001, 5.06726444e-001,
          8.34080696e-001, 8.60986531e-001 ]
      - [ 1.15702480e-001, 8.05785134e-002, 1.14049584e-001,
          1.23966942e-002, 8.47107470e-002, 3.51239681e-001,
          1.19834714e-001, 2.43801653e-001, 5.16528904e-001,
          7.68595040e-001, 8.09917331e-001 ]
      - [ 2.58620698e-002, 5.76923080e-002, 6.72413781e-002,
          3.58090177e-002, 1.09416448e-001, 4.53580916e-001,
          8.15649852e-002, 1.98938996e-001, 4.73474801e-001,
          6.16710901e-001, 8.23607445e-001 ]
      - [ 1.68413177e-001, 1.05538920e-001, 1.51796401e-001,
          2.47005988e-002, 1.05538920e-001, 3.81736517e-001,
          1.39221549e-001, 2.60479033e-001, 4.35628742e-001,
          7.09580839e-001, 8.93712580e-001 ]
      - [ 9.21926871e-002, 1.74418595e-002, 8.27242509e-002,
          2.24252492e-002, 6.97674379e-002, 4.13621247e-001,
          1.09634548e-001, 2.64119595e-001, 5.43189347e-001,
          8.67109597e-001, 9.06976700e-001 ]
      - [ 7.60368630e-002, 3.68663594e-002, 8.38709697e-002,
          2.99539175e-002, 9.90783423e-002, 4.93087560e-001,
          7.83410147e-002, 1.93548381e-001, 4.74654377e-001,
          4.79262680e-001, 8.98617506e-001 ]
      - [ 8.73015895e-002, 4.36507948e-002, 8.96825418e-002,
          1.78571437e-002, 1.13095239e-001, 4.04761910e-001,
          8.92857164e-002, 1.62698418e-001, 5.03968239e-001,
          3.69047612e-001, 8.13492060e-001 ]
      - [ 1.20790631e-001, 5.05124442e-002, 1.07613467e-001,
          1.31771592e-002, 1.27379209e-001, 4.52415794e-001,
          9.66325030e-002, 2.24011704e-001, 4.26061481e-001,
          6.23718858e-001, 7.73060024e-001 ]
      - [ 1.19828813e-001, 1.36947215e-001, 1.40370890e-001,
          3.20970044e-002, 7.27532059e-002, 4.23680454e-001,
          8.77318084e-002, 2.56776035e-001, 4.40798849e-001,
          8.21683288e-001, 8.25962901e-001 ]
      - [ 8.63636360e-002, 6.36363626e-002, 9.31818187e-002,
          9.09090880e-003, 1.15909092e-001, 4.90909100e-001,
          1.38636366e-001, 2.95454532e-001, 4.40909088e-001,
          7.77272701e-001, 9.77272749e-001 ]
      - [ 1.17374010e-001, 6.76392615e-002, 1.13395229e-001,
          1.59151200e-002, 1.43236071e-001, 3.93899202e-001,
          1.17374010e-001, 2.54641920e-001, 4.77453589e-001,
          6.68435037e-001, 8.55437696e-001 ]
      - [ 1.41203701e-001, 1.22685187e-001, 1.51388869e-001,
          1.38888890e-002, 1.15740739e-001, 3.56481493e-001,
          1.22685187e-001, 2.36111104e-001, 4.81481493e-001,
          5.97222209e-001, 7.63888896e-001 ]
      - [ 1.03759393e-001, 8.57142806e-002, 1.11879691e-001,
          1.80451125e-002, 9.92481187e-002, 4.15037572e-001,
          1.15037590e-001, 2.16541350e-001, 4.37593967e-001,
          4.69172925e-001, 7.98496246e-001 ]
      - [ 1.38020828e-001, 9.11458358e-002, 1.34374991e-001,
          3.12500000e-002, 1.14583336e-001, 2.34375000e-001,
          1.38020828e-001, 2.86458343e-001, 4.63541657e-001,
          8.48958313e-001, 8.33333313e-001 ]
      - [ 1.22913502e-001, 9.33232158e-002, 1.29286796e-001,
          4.09711674e-002, 9.10470411e-002, 4.09711689e-001,
          6.60091043e-002, 2.13960543e-001, 4.41578150e-001,
          6.91957474e-001, 7.92109251e-001 ]
      - [ 9.95575190e-002, 1.10619470e-001, 1.16814159e-001,
          2.65486725e-002, 1.54867262e-001, 3.49557519e-001,
          1.70353979e-001, 2.47787610e-001, 3.58407080e-001,
          3.80530983e-001, 8.40707958e-001 ]
      - [ 8.39160830e-002, 8.65384564e-002, 9.28321704e-002,
          5.24475519e-003, 6.55594394e-002, 4.14335668e-001,
          1.46853149e-001, 2.25524470e-001, 4.40559417e-001,
          5.61188817e-001, 8.60139847e-001 ]
      - [ 4.08163257e-002, 7.39795938e-002, 7.19387755e-002,
          2.55102050e-002, 1.35204077e-001, 5.20408154e-001,
          1.83673471e-001, 2.39795923e-001, 3.77551019e-001,
          4.13265318e-001, 9.13265288e-001 ]
      - [ 4.65631932e-002, 2.66075395e-002, 5.52106462e-002,
          3.82483378e-002, 1.39689580e-001, 4.22394693e-001,
          1.16407983e-001, 1.76274955e-001, 3.25942367e-001,
          4.49002236e-001, 8.34811568e-001 ]
      - [ 1.28304824e-001, 1.16640747e-001, 1.39968902e-001,
          2.79937796e-002, 1.11975119e-001, 3.26594085e-001,
          1.77293941e-001, 2.05287725e-001, 4.01244164e-001,
          2.23950237e-001, 7.46500790e-001 ]
      - [ 2.58620698e-002, 2.80172415e-002, 5.51724099e-002,
          3.66379321e-002, 8.18965510e-002, 6.12068951e-001,
          1.27155170e-001, 1.68103442e-001, 3.31896544e-001,
          2.32758626e-001, 9.39655185e-001 ]
      - [ 7.82208592e-002, 1.15030676e-001, 1.06748469e-001,
          2.76073627e-002, 8.28220844e-002, 3.86503071e-001,
          1.21932521e-001, 1.74846634e-001, 4.32515353e-001,
          3.17484677e-001, 7.77607381e-001 ]
      - [ 1.23873875e-001, 1.35135138e-002, 9.18918923e-002,
          1.35135138e-002, 8.33333358e-002, 4.14414406e-001,
          1.08108111e-001, 1.17117114e-001, 4.05405402e-001,
          1.17117114e-001, 8.24324310e-001 ]
      - [ 9.01060030e-002, 1.24558300e-001, 1.18197873e-001,
          3.44522968e-002, 8.48056525e-002, 3.44522953e-001,
          1.27208471e-001, 1.59010589e-001, 3.97526503e-001,
          2.75618374e-001, 7.68551230e-001 ]
      - [ 6.81818184e-003, 5.90909086e-002, 5.90909086e-002,
          1.13636367e-002, 8.18181783e-002, 5.72727263e-001,
          1.34090915e-001, 1.90909088e-001, 3.72727275e-001,
          4.63636369e-001, 9.36363637e-001 ]
      - [ 8.93719792e-002, 7.97101483e-002, 1.04347818e-001,
          3.38164233e-002, 7.24637657e-002, 5.16908228e-001,
          1.73913047e-001, 2.41545901e-001, 3.52656990e-001,
          5.36231875e-001, 9.85507250e-001 ]
      - [ 1.25925928e-001, 9.62962955e-002, 1.30370378e-001,
          9.25925933e-003, 9.81481448e-002, 4.33333337e-001,
          1.90740734e-001, 2.03703701e-001, 3.92592579e-001,
          5.74074090e-001, 8.81481469e-001 ]
      - [ 4.83293533e-002, 3.22195701e-002, 5.44152707e-002,
          7.15990411e-003, 1.19928397e-001, 3.65155131e-001,
          1.48568019e-001, 1.64677799e-001, 3.00715983e-001,
          3.90214771e-001, 7.44630039e-001 ]
      - [ 1.01920232e-001, 4.87444587e-002, 9.17282104e-002,
          8.86262860e-003, 1.46233380e-001, 3.81093055e-001,
          1.52880356e-001, 1.81683898e-001, 3.01329374e-001,
          2.34859675e-001, 7.40029514e-001 ]
      - [ 1.00155279e-001, 7.45341629e-002, 9.87577662e-002,
          4.65838518e-003, 1.35093167e-001, 4.42546576e-001,
          1.49068326e-001, 2.04968944e-001, 3.68012428e-001,
          3.81987572e-001, 8.61801207e-001 ]
      - [ 1.25514403e-001, 6.79012313e-002, 1.10699587e-001,
          2.46913582e-002, 9.46502090e-002, 4.48559672e-001,
          1.39917701e-001, 1.89300418e-001, 3.49794239e-001,
          2.67489702e-001, 7.94238687e-001 ]
      - [ 8.48142207e-002, 1.04200326e-001, 1.06138945e-001,
          4.11954783e-002, 1.21163167e-002, 4.74959612e-001,
          1.33279487e-001, 1.69628441e-001, 3.19870770e-001,
          3.39256883e-001, 9.30533111e-001 ]
      - [ 3.78486067e-002, 1.99203193e-002, 5.37848622e-002,
          2.78884470e-002, 1.23505980e-001, 4.82071728e-001,
          1.39442235e-001, 1.99203193e-001, 4.02390450e-001,
          4.02390450e-001, 8.80478084e-001 ]
      - [ 7.83972144e-002, 8.10104534e-002, 9.98257920e-002,
          1.30662024e-002, 3.91986072e-002, 3.91986072e-001,
          1.54181182e-001, 2.03832760e-001, 3.29268306e-001,
          4.12891984e-001, 7.57839739e-001 ]
      - [ 1.17931031e-001, 1.07586205e-001, 1.27448276e-001,
          4.13793102e-002, 1.09655172e-001, 3.88965517e-001,
          1.59310341e-001, 1.90344825e-001, 4.01379287e-001,
          3.02068949e-001, 7.73793101e-001 ]
      - [ 8.91089067e-002, 5.30410185e-002, 8.57142881e-002,
          1.48514844e-002, 1.29420087e-001, 4.03111726e-001,
          1.18811876e-001, 1.57001406e-001, 3.90381873e-001,
          2.50353605e-001, 8.27439845e-001 ]
      - [ 1.11188814e-001, 9.23076943e-002, 1.18321687e-001,
          4.61538471e-002, 1.19580425e-001, 4.27972049e-001,
          1.17482521e-001, 1.46853149e-001, 3.06293726e-001,
          2.13986024e-001, 8.18181813e-001 ]
      - [ 9.97045785e-002, 7.09010288e-002, 1.15214176e-001,
          3.98818292e-002, 1.24076806e-001, 4.20974880e-001,
          1.32939443e-001, 1.72821268e-001, 3.19054633e-001,
          2.79172808e-001, 7.97636628e-001 ]
      - [ 7.88508579e-002, 4.95110042e-002, 8.94865617e-002,
          7.33496342e-003, 1.44865528e-001, 4.29095358e-001,
          1.52200490e-001, 1.83374092e-001, 3.96088034e-001,
          4.54767734e-001, 7.70171165e-001 ]
      - [ 1.01071976e-001, 8.03981572e-002, 1.13016844e-001,
          1.14854518e-002, 9.18836147e-002, 3.58346075e-001,
          1.60796314e-001, 2.38897398e-001, 4.04287905e-001,
          6.61562026e-001, 9.50995386e-001 ]
      - [ 5.56379817e-002, 8.23442116e-002, 9.92581546e-002,
          6.67655794e-003, 7.56676570e-002, 4.54005927e-001,
          1.60237387e-001, 2.89317489e-001, 3.96142423e-001,
          9.21364963e-001, 9.12462890e-001 ]
      - [ 8.04973841e-002, 4.31937166e-002, 8.67801011e-002,
          1.37434555e-002, 1.15837693e-001, 3.92670155e-001,
          1.57068059e-001, 2.70942390e-001, 3.53403121e-001,
          6.55759156e-001, 8.28534007e-001 ]
      - [ 4.74860333e-002, 7.82122910e-002, 9.27374214e-002,
          1.95530728e-002, 5.02793305e-002, 3.01675975e-001,
          1.70391068e-001, 2.68156439e-001, 4.35754180e-001,
          8.37988853e-001, 8.32402229e-001 ]
      - [ 1.20178036e-001, 1.13501482e-001, 1.33976266e-001,
          1.55786350e-002, 6.45400584e-002, 3.96142423e-001,
          1.66913942e-001, 2.84866452e-001, 3.56083065e-001,
          8.90207708e-001, 8.67952526e-001 ]
      - [ 1.33802816e-001, 1.03286386e-001, 1.34741783e-001,
          2.58215964e-002, 1.00938968e-001, 3.84976536e-001,
          1.61971837e-001, 2.48826295e-001, 3.61502349e-001,
          6.71361506e-001, 8.30985904e-001 ]
      - [ 1.08088233e-001, 1.30147055e-001, 1.36323527e-001,
          4.41176444e-002, 1.10294119e-001, 5.20588219e-001,
          6.61764666e-002, 1.76470578e-001, 3.75000000e-001,
          5.29411733e-001, 8.60294104e-001 ]
      - [ 4.43234853e-002, 4.66562994e-002, 6.15863204e-002,
          4.43234853e-002, 3.03265955e-002, 4.99222398e-001,
          9.33125988e-002, 2.05287725e-001, 4.15241063e-001,
          6.43856943e-001, 8.58475924e-001 ]
      - [ 7.20930248e-002, 9.06976759e-002, 1.04186043e-001,
          1.62790697e-002, 6.97674453e-002, 3.58139545e-001,
          1.13953486e-001, 1.62790701e-001, 4.32558149e-001,
          5.06976724e-001, 7.90697694e-001 ]
      - [ 3.12035661e-002, 8.91530514e-003, 5.57206534e-002,
          1.11441314e-002, 1.20356612e-001, 4.99257058e-001,
          1.33729577e-001, 1.82763755e-001, 3.38781595e-001,
          5.21545351e-001, 8.51411581e-001 ]
      - [ 1.21987954e-001, 9.93975922e-002, 1.24698803e-001,
          2.25903615e-002, 8.58433768e-002, 3.93072307e-001,
          1.76204830e-001, 2.07831323e-001, 3.43373507e-001,
          5.01506031e-001, 8.85542214e-001 ]
      - [ 9.08419490e-002, 1.17429838e-001, 1.16543569e-001,
          6.64697168e-003, 6.86853752e-002, 5.40620387e-001,
          1.12998523e-001, 1.72821268e-001, 3.63367796e-001,
          5.00738561e-001, 9.30576026e-001 ]
      - [ 1.02915958e-001, 1.36363640e-001, 1.38936535e-001,
          3.60205844e-002, 1.00343056e-001, 3.85934830e-001,
          1.44082338e-001, 2.41852492e-001, 3.96226436e-001,
          5.76329350e-001, 8.64494026e-001 ]
      - [ 1.03667140e-001, 8.88575464e-002, 1.04513407e-001,
          3.17348391e-002, 6.34696754e-003, 3.97743315e-001,
          1.37517631e-001, 1.81946412e-001, 3.76586735e-001,
          4.56981689e-001, 7.40479589e-001 ]
      - [ 2.55813953e-002, 6.04651161e-002, 6.93023205e-002,
          3.48837227e-002, 6.04651161e-002, 4.27906990e-001,
          1.11627907e-001, 1.81395352e-001, 3.81395340e-001,
          4.51162785e-001, 8.23255837e-001 ]
      - [ 1.57676354e-001, 1.20331950e-001, 1.58921167e-001,
          3.94190885e-002, 8.50622430e-002, 3.44398350e-001,
          1.32780090e-001, 2.03319505e-001, 3.85892123e-001,
          6.80497944e-001, 7.71784246e-001 ]
      - [ 6.12708032e-002, 1.81543119e-002, 6.89863861e-002,
          2.49621794e-002, 6.80786669e-002, 5.12859344e-001,
          9.30408463e-002, 2.04236016e-001, 4.03933436e-001,
          7.71558285e-001, 8.44175518e-001 ]
      - [ 4.62249629e-002, 2.08012331e-002, 6.05547018e-002,
          3.00462265e-002, 1.22496150e-001, 4.62249637e-001,
          1.31741136e-001, 2.31124818e-001, 4.11402166e-001,
          8.55161786e-001, 8.41294348e-001 ]
      - [ 6.73374608e-002, 6.96594417e-002, 9.28792581e-002,
          2.32198159e-003, 1.41640872e-001, 4.87616122e-001,
          1.13777094e-001, 1.67182669e-001, 3.85448933e-001,
          5.66563487e-001, 8.68421078e-001 ]
      - [ 1.13445379e-001, 1.21008404e-001, 1.22521006e-001,
          5.29411770e-002, 8.31932798e-002, 3.78151268e-001,
          1.38655469e-001, 1.91596642e-001, 3.88235301e-001,
          4.53781515e-001, 8.52100849e-001 ]
      - [ 9.43251550e-002, 1.19631901e-001, 1.15490794e-001,
          4.37116586e-002, 1.24233134e-001, 3.58895719e-001,
          1.24233134e-001, 1.93251535e-001, 4.09509212e-001,
          4.60122705e-001, 7.82208622e-001 ]
      - [ 1.41826928e-001, 8.17307681e-002, 1.34615391e-001,
          2.40384620e-002, 8.65384638e-002, 2.83653855e-001,
          1.37019232e-001, 1.87500000e-001, 3.65384609e-001,
          4.42307681e-001, 7.98076928e-001 ]
      - [ 1.04430377e-001, 1.02056958e-001, 1.22943036e-001,
          1.18670883e-002, 7.12025315e-002, 4.60443020e-001,
          1.54272154e-001, 2.23101258e-001, 4.03481007e-001,
          7.12025285e-001, 9.35126543e-001 ]
   decision_functions:
      -
         sv_count: 9
         rho: 4.5587418570600136e+000
         alpha: [ 6.0307681194670039e+001, 3.1250000000000000e+002,
             1.1718003562634684e+002, 1.4517683243408746e+002,
             2.1001036334451136e+001, -1.6404879652033500e+002,
             -1.4143939009067483e+002, -3.8177398978545725e+001,
             -3.1250000000000000e+002 ]
         index: [ 2, 3, 7, 10, 15, 16, 17, 18, 20 ]
      -
         sv_count: 13
         rho: -6.9791171196663593e-001
         alpha: [ 9.0213876771705674e+000, 3.1250000000000000e+002,
             3.1250000000000000e+002, 3.1250000000000000e+002,
             2.0141687512258775e+002, 3.1250000000000000e+002,
             -2.6504434413006902e+002, -2.8545448991085107e+002,
             -1.6341882322721213e+002, -1.6474624579246523e+002,
             -1.8976172184886715e+002, -7.9512637890293789e+001,
             -3.1250000000000000e+002 ]
         index: [ 0, 3, 5, 6, 7, 8, 21, 22, 23, 25, 33, 38, 41 ]
      -
         sv_count: 11
         rho: 5.0377856413916264e+000
         alpha: [ 1.0782022295292316e+002, 2.9890228067714139e+002,
             3.1250000000000000e+002, 2.6388191869738671e+002,
             3.1506918137285567e-001, 1.7996319608660880e+001,
             -3.1250000000000000e+002, -3.1250000000000000e+002,
             -2.9562332039322121e+002, -6.0181991319692443e+001,
             -2.0610499404571463e+001 ]
         index: [ 1, 3, 5, 6, 14, 15, 48, 49, 53, 55, 59 ]
      -
         sv_count: 23
         rho: 7.8140554224154863e+000
         alpha: [ 2.1247286201539833e+002, 1.7210873679981785e+002,
             3.1250000000000000e+002, 3.1250000000000000e+002,
             3.3019522916513601e+001, 1.3263134330760934e+002,
             2.6901851353287333e+002, 2.0273369164658082e+001,
             1.6805729904739974e+002, 3.1250000000000000e+002,
             -8.0110473389168490e+001, -2.1620384800316600e+002,
             -9.0183107544637835e+001, -5.3270614375031755e+001,
             -3.1250000000000000e+002, -9.7018898890887442e+001,
             -2.5038685868255254e+001, -3.0169193443618042e+002,
             -2.9583224318788666e+002, -9.4812569166807222e+001,
             -1.7799095518967141e+002, -3.6861777887652440e+000,
             -1.9674213894381251e+002 ]
         index: [ 1, 3, 4, 5, 7, 9, 11, 12, 13, 14, 62, 63, 64, 65, 66,
             68, 69, 72, 74, 75, 76, 77, 78 ]
      -
         sv_count: 6
         rho: 6.5512207317930859e-001
         alpha: [ 3.1250000000000000e+002, 6.2307806195998154e+001,
             2.9221265222860694e+001, -2.3225919514029701e+002,
             -5.2098834622181336e+001, -1.1967104165638052e+002 ]
         index: [ 5, 6, 7, 81, 91, 103 ]
      -
         sv_count: 11
         rho: 2.6931518178155960e+000
         alpha: [ 3.1250000000000000e+002, 1.1405402778271549e+001,
             3.1250000000000000e+002, 1.6664869858703517e+002,
             1.3643191727381512e+002, -4.2117115935251881e+001,
             -1.6331214815575073e+001, -1.0089528344926978e+002,
             -3.1250000000000000e+002, -1.5514240443902506e+002,
             -3.1250000000000000e+002 ]
         index: [ 3, 5, 8, 10, 11, 104, 105, 106, 109, 119, 121 ]
      -
         sv_count: 8
         rho: -5.3733593240899094e+000
         alpha: [ 3.1250000000000000e+002, 8.3559135124138933e+001,
             1.7006031913729984e+002, -8.5718797342702672e+001,
             -2.4241762284625307e+002, -2.3927021307352440e+001,
             -7.2312244500060075e+001, -1.4174376826507046e+002 ]
         index: [ 16, 17, 20, 21, 22, 28, 31, 41 ]
      -
         sv_count: 9
         rho: -2.0619345344459279e+000
         alpha: [ 3.1250000000000000e+002, 7.6308922257471856e+000,
             1.9395712653482018e+000, 1.8789464751951425e+002,
             -1.5111326155743791e+002, -1.3336526779212082e+002,
             -2.3988392667481349e+001, -1.7749431433241242e+001,
             -1.8374875756032839e+002 ]
         index: [ 16, 17, 19, 20, 45, 48, 51, 54, 57 ]
      -
         sv_count: 7
         rho: -3.1958363198759185e+000
         alpha: [ 2.0234975604903889e+002, 3.9124442444389899e+001,
             5.1732942832956546e+001, 7.2064286377484066e+001,
             -2.4905418076481926e+001, -1.7205723379242110e+002,
             -1.6830877583496633e+002 ]
         index: [ 16, 17, 18, 20, 72, 74, 77 ]
      -
         sv_count: 10
         rho: -1.5690727196438834e+000
         alpha: [ 3.1250000000000000e+002, 9.5322107807635447e+001,
             -4.0899806015233636e+001, -4.2333275939894328e+001,
             -3.0558197675844514e+001, -9.1338848018889287e+000,
             -6.3999175348329331e+001, -1.3340013792958896e+002,
             -4.5008022753562763e+001, -4.2489607343292974e+001 ]
         index: [ 16, 20, 81, 82, 83, 89, 90, 91, 97, 103 ]
      -
         sv_count: 13
         rho: -2.9308583065004239e+000
         alpha: [ 3.1250000000000000e+002, 2.7157688671301298e+002,
             1.8482637080014122e+001, 2.0429157517722567e+002,
             -1.4395700562534327e+002, -1.3453352071059314e+002,
             -2.5771315801593655e+001, -9.3353279357599064e+001,
             -1.5166027616470572e+002, -9.1566914569288791e+000,
             -1.8438075667149544e+001, -9.8522363383328411e+001,
             -1.3145857080301116e+002 ]
         index: [ 16, 17, 18, 20, 105, 106, 108, 109, 110, 113, 114, 116,
             122 ]
      -
         sv_count: 26
         rho: -7.0177273863815133e+000
         alpha: [ 1.0827699655008649e+002, 3.1250000000000000e+002,
             1.6101443751359380e+002, 2.7061741858317660e+001,
             7.3829121975472759e+001, 1.5953732955717122e+001,
             3.1250000000000000e+002, 8.0745513824203272e+001,
             3.1250000000000000e+002, 2.1806998305146692e+002,
             7.7071243693536402e+001, 3.1250000000000000e+002,
             2.2270247248501654e+001, 7.3672955721846023e+001,
             8.8322414808997550e+001, 8.7109758151723469e+001,
             -3.1250000000000000e+002, -8.4817345956418805e+001,
             -1.6558308946061049e+002, -3.1250000000000000e+002,
             -3.1250000000000000e+002, -3.1250000000000000e+002,
             -4.2196892877596703e+001, -2.2895017163254624e+002,
             -2.6715748630247612e+002, -2.4469316112381475e+002 ]
         index: [ 21, 22, 24, 26, 27, 29, 31, 32, 33, 34, 35, 38, 40, 42,
             43, 44, 45, 46, 48, 49, 50, 51, 53, 56, 57, 60 ]
      -
         sv_count: 10
         rho: 2.1640248311747672e+000
         alpha: [ 2.0309647501270194e+002, 2.7290663688873241e+002,
             8.7043531296519191e+001, 5.3095696227298696e+001,
             6.6450006149156891e+001, 5.1827189146368013e+001,
             -1.2787419677021194e+002, -1.9147114942700676e+002,
             -1.0257418852355839e+002, -3.1250000000000000e+002 ]
         index: [ 21, 22, 23, 25, 33, 35, 68, 72, 74, 77 ]
      -
         sv_count: 30
         rho: 1.1784565051923506e+000
         alpha: [ 6.2868903957732954e+001, 2.9209227740586130e+002,
             9.3362932861962463e+001, 3.1250000000000000e+002,
             1.3213232500531745e+002, 1.5890204938862709e+001,
             1.0699779575399396e+002, 1.5302948473228670e+002,
             2.3683885785446239e+002, 1.5789439414390301e+002,
             8.9192249819663914e+001, 9.9200388329593096e+001,
             3.3185349341228061e+001, 4.9011349957467409e+001,
             3.1250000000000000e+002, -1.9732260071532490e+001,
             -1.5231679701496336e+002, -8.3428787185056294e+001,
             -5.1223051952266609e+001, -5.0332236931741789e+001,
             -1.4443937089744836e+002, -3.1250000000000000e+002,
             -3.1250000000000000e+002, -8.2184709890775366e+001,
             -1.8926035046931499e+001, -9.3362932861962463e+001,
             -1.6169713925980957e+002, -3.1250000000000000e+002,
             -3.9053192989847510e+001, -3.1250000000000000e+002 ]
         index: [ 21, 22, 24, 27, 28, 29, 30, 31, 34, 36, 37, 38, 39, 42,
             43, 80, 81, 83, 84, 85, 87, 90, 91, 92, 93, 94, 95, 99, 101,
             103 ]
      -
         sv_count: 20
         rho: -6.1459808143060801e-001
         alpha: [ 1.5328162268949450e+002, 3.1250000000000000e+002,
             1.9245022166155149e+001, 9.6362202355947247e+001,
             3.1250000000000000e+002, 4.2660416715402881e+001,
             9.9014629105556097e+001, 7.9759518325925669e+001,
             6.0719462686029431e+001, 1.4448128220443181e+002,
             -9.2228940405511480e+001, -1.2799562140042804e+002,
             -1.9672288705044608e+002, -3.1250000000000000e+002,
             -3.5627890999661503e+001, -6.5000684956186902e+001,
             -3.1250000000000000e+002, -9.1157035248360259e+001,
             -4.7846079989306901e+001, -3.8945016199041603e+001 ]
         index: [ 21, 22, 27, 28, 32, 33, 34, 36, 39, 44, 106, 109, 113,
             114, 115, 117, 122, 124, 125, 126 ]
      -
         sv_count: 13
         rho: 3.7004976907641063e+000
         alpha: [ 2.2360767010373942e+002, 3.1250000000000000e+002,
             1.5710302889343791e+002, 1.9112446856391091e+002,
             1.3007451474504316e+002, 3.1250000000000000e+002,
             2.0030028111243936e+002, -3.1250000000000000e+002,
             -3.1250000000000000e+002, -3.0101070013735546e+002,
             -2.4919889984242712e+002, -3.9500363438788320e+001,
             -3.1250000000000000e+002 ]
         index: [ 46, 48, 49, 53, 55, 58, 61, 70, 71, 72, 74, 76, 77 ]
      -
         sv_count: 25
         rho: 6.4490154064031362e+000
         alpha: [ 3.1250000000000000e+002, 1.4821403402646371e+002,
             2.9965702841721702e+002, 1.8394703062650535e+001,
             2.3550110369595384e+002, 3.1250000000000000e+002,
             6.3649804918704774e+001, 3.1250000000000000e+002,
             1.5876697452559528e+001, 3.1250000000000000e+002,
             1.6017020970272615e+001, 1.2687885396496586e+002,
             -3.1250000000000000e+002, -3.1250000000000000e+002,
             -2.6127641746212262e+001, -3.0343045680390475e+001,
             -1.0710703965309763e+002, -1.6017935728935171e+002,
             -1.6267739956200904e+002, -7.5854627787873724e+001,
             -3.1250000000000000e+002, -1.7305562335278009e+002,
             -4.9878441859849517e+001, -1.3896606957722329e+002,
             -3.1250000000000000e+002 ]
         index: [ 45, 46, 47, 49, 50, 51, 52, 53, 54, 57, 59, 60, 81, 83,
             85, 86, 89, 90, 91, 94, 97, 99, 100, 102, 103 ]
      -
         sv_count: 15
         rho: -6.7477470137660345e-001
         alpha: [ 1.0190156045278741e+002, 3.1250000000000000e+002,
             1.0809137469745507e+002, 3.1250000000000000e+002,
             9.0435830075754097e+001, 3.1250000000000000e+002,
             3.1250000000000000e+002, -9.1517260275401810e+001,
             -3.1250000000000000e+002, -2.0667057133719553e+001,
             -2.4871385386970837e+002, -3.1250000000000000e+002,
             -1.5445431772507695e+002, -3.1250000000000000e+002,
             -9.7576276222089888e+001 ]
         index: [ 48, 50, 51, 53, 56, 57, 60, 106, 113, 117, 118, 122,
             123, 124, 125 ]
      -
         sv_count: 9
         rho: -1.3420994116855813e+000
         alpha: [ 3.1940422021587221e+001, 2.4159297939920396e+001,
             1.0750213269556055e+002, 5.0186168695856445e+001,
             3.1250000000000000e+002, -3.1250000000000000e+002,
             -7.7847068168545903e+001, -1.0096421600929791e+001,
             -1.2584453158344890e+002 ]
         index: [ 67, 68, 71, 74, 77, 81, 86, 87, 103 ]
      -
         sv_count: 17
         rho: 1.9785425668936441e+000
         alpha: [ 1.5525015806832144e+002, 4.1868726217460626e+001,
             1.1993228272691954e+002, 5.7644476177333551e+001,
             3.1250000000000000e+002, 8.5307051367079172e+000,
             8.5910087452642081e+000, -6.0403328314447302e-001,
             -5.3413807253908956e+001, -5.1033747148795477e+001,
             -5.6070488964220772e+001, -1.5506872858687004e+001,
             -5.4709691277741115e+001, -1.2625790629671964e+002,
             -1.6547741100354770e+001, -2.5842755824478866e+002,
             -7.1745510643646455e+001 ]
         index: [ 67, 68, 73, 74, 77, 78, 79, 105, 107, 110, 111, 112,
             116, 120, 121, 124, 126 ]
      -
         sv_count: 19
         rho: -3.0816336040209773e+000
         alpha: [ 3.1250000000000000e+002, 3.1250000000000000e+002,
             1.6897938495530003e+001, 1.1284929490968057e+001,
             1.0768256808116602e+002, 3.1250000000000000e+002,
             5.0486223182618744e+001, 1.6690494142522894e+002,
             3.1250000000000000e+002, 1.2034787713792548e+002,
             -6.1950905694336186e+001, -3.1250000000000000e+002,
             -3.1250000000000000e+002, -1.9338889806610831e+002,
             -1.5306193743077424e+002, -3.1250000000000000e+002,
             -1.8865428788638212e+002, -5.1381144656742229e+001,
             -1.3766730407909412e+002 ]
         index: [ 81, 83, 88, 89, 90, 91, 92, 96, 98, 103, 106, 113, 114,
             115, 117, 118, 123, 124, 125 ]
